{"gradients/decoder.hybrid_ode.linear_zx.weight":{"_type":"histogram","values":[1,0,0,0,0,1,1,0,0,0,0,0,0,0,0,0,0,0,0,0,1,0,0,0,0,0,0,0,0,1,2,2,9,11,9,8,3,2,0,0,0,1,0,0,0,0,0,0,0,0,0,0,0,0,0,1,0,0,0,0,1,0,0,1],"bins":[-0.3264288008213043,-0.3168090581893921,-0.30718928575515747,-0.29756951332092285,-0.2879497706890106,-0.2783300280570984,-0.26871025562286377,-0.25909048318862915,-0.24947074055671692,-0.2398509830236435,-0.23023122549057007,-0.22061146795749664,-0.21099171042442322,-0.2013719528913498,-0.19175219535827637,-0.18213243782520294,-0.17251268029212952,-0.1628929227590561,-0.15327316522598267,-0.14365340769290924,-0.13403365015983582,-0.12441389262676239,-0.11479413509368896,-0.10517437756061554,-0.09555462002754211,-0.08593486249446869,-0.07631510496139526,-0.06669534742832184,-0.05707558989524841,-0.04745583236217499,-0.03783607482910156,-0.028216317296028137,-0.0185965895652771,-0.008976832032203674,0.000642925500869751,0.010262683033943176,0.0198824405670166,0.029502198100090027,0.03912195563316345,0.04874171316623688,0.0583614706993103,0.06798122823238373,0.07760098576545715,0.08722074329853058,0.096840500831604,0.10646025836467743,0.11608001589775085,0.12569977343082428,0.1353195309638977,0.14493928849697113,0.15455904603004456,0.16417880356311798,0.1737985610961914,0.18341831862926483,0.19303807616233826,0.20265783369541168,0.2122775912284851,0.22189734876155853,0.23151710629463196,0.24113686382770538,0.2507566213607788,0.2603763937950134,0.26999613642692566,0.2796158790588379,0.2892356514930725]},"gradients/encoder.lstm.bias_ih_l0":{"values":[1,0,0,0,0,0,0,0,0,0,0,0,0,0,0,0,0,0,0,0,0,0,0,0,0,0,0,1,0,0,0,0,0,0,0,0,1,1,1,0,0,0,0,0,0,0,2,0,1,3,6,0,0,0,0,0,0,0,1,1,0,0,0,1],"bins":[-0.0001879950286820531,-0.00018428656039759517,-0.00018057810666505247,-0.00017686963838059455,-0.00017316118464805186,-0.00016945271636359394,-0.00016574426263105124,-0.00016203579434659332,-0.00015832734061405063,-0.0001546188723295927,-0.00015091041859705,-0.0001472019503125921,-0.0001434934965800494,-0.00013978502829559147,-0.00013607657456304878,-0.00013236810627859086,-0.00012865965254604816,-0.00012495118426159024,-0.00012124272325308993,-0.00011753426224458963,-0.00011382580123608932,-0.00011011734022758901,-0.0001064088792190887,-0.0001027004182105884,-9.899195720208809e-05,-9.528349619358778e-05,-9.157503518508747e-05,-8.786657417658716e-05,-8.415811316808686e-05,-8.044965215958655e-05,-7.674119115108624e-05,-7.303273014258593e-05,-6.932427641004324e-05,-6.561580812558532e-05,-6.190734711708501e-05,-5.819888974656351e-05,-5.44904287380632e-05,-5.0781967729562894e-05,-4.7073506721062586e-05,-4.336504571256228e-05,-3.965658106608316e-05,-3.5948120057582855e-05,-3.223965904908255e-05,-2.8531199859571643e-05,-2.4822737032081932e-05,-2.1114276023581624e-05,-1.7405815015081316e-05,-1.3697354006581008e-05,-9.9888929980807e-06,-6.280431989580393e-06,-2.571970526332734e-06,1.136490709541249e-06,4.844951945415232e-06,8.55341295391554e-06,1.226187487191055e-05,1.5970335880410857e-05,1.9678796888911165e-05,2.3387257897411473e-05,2.709571890591178e-05,3.080418173340149e-05,3.45126427419018e-05,3.822110375040211e-05,4.1929564758902416e-05,4.5638025767402723e-05,4.934648677590303e-05],"_type":"histogram"},"gradients/encoder.g_eta.weight":{"values":[1,0,0,0,0,0,0,0,0,0,1,0,0,0,0,0,0,1,0,0,1,0,1,1,1,2,3,2,2,3,1,1,1,0,1,0,0,0,0,0,0,0,1,0,0,0,0,0,0,0,0,0,0,0,0,0,0,0,0,0,0,0,0,1],"bins":[-0.0016522998921573162,-0.0015918585704639554,-0.0015314173651859164,-0.0014709760434925556,-0.0014105348382145166,-0.0013500935165211558,-0.0012896523112431169,-0.001229210989549756,-0.001168769784271717,-0.0011083284625783563,-0.0010478872573003173,-0.0009874459356069565,-0.0009270046721212566,-0.0008665634086355567,-0.0008061221451498568,-0.0007456808816641569,-0.000685239618178457,-0.0006247983546927571,-0.0005643570912070572,-0.0005039158277213573,-0.00044347456423565745,-0.0003830332716461271,-0.0003225920081604272,-0.0002621507446747273,-0.00020170948118902743,-0.00014126821770332754,-8.082694694167003e-05,-2.038567981799133e-05,4.005558730568737e-05,0.00010049685079138726,0.00016093812882900238,0.00022137939231470227,0.00028182065580040216,0.00034226191928610206,0.00040270318277180195,0.00046314444625750184,0.0005235857097432017,0.0005840269732289016,0.0006444682367146015,0.0007049095002003014,0.0007653507636860013,0.0008257920853793621,0.000886233348865062,0.0009466746123507619,0.0010071158176288009,0.0010675571393221617,0.0011279983446002007,0.0011884396662935615,0.0012488809879869223,0.0013093221932649612,0.001369763514958322,0.001430204720236361,0.0014906460419297218,0.0015510872472077608,0.0016115285689011216,0.0016719697741791606,0.0017324110958725214,0.0017928523011505604,0.0018532936228439212,0.0019137348281219602,0.001974176149815321,0.00203461735509336,0.002095058560371399,0.0021554999984800816,0.0022159412037581205],"_type":"histogram"},"gradients/encoder.lstm.weight_ih_l0":{"bins":[-4.673050568726467e-07,-4.5826419636796345e-07,-4.4922333586328023e-07,-4.40182475358597e-07,-4.3114158643220435e-07,-4.221007259275211e-07,-4.130598654228379e-07,-4.040190049181547e-07,-3.9497814441347145e-07,-3.8593728390878823e-07,-3.76896423404105e-07,-3.678555628994218e-07,-3.5881470239473856e-07,-3.497738134683459e-07,-3.407329529636627e-07,-3.3169209245897946e-07,-3.2265123195429624e-07,-3.13610371449613e-07,-3.045695109449298e-07,-2.9552865044024657e-07,-2.864877615138539e-07,-2.774469010091707e-07,-2.6840604050448746e-07,-2.5936517999980424e-07,-2.50324319495121e-07,-2.412834589904378e-07,-2.3224259848575457e-07,-2.2320172377021663e-07,-2.141608632655334e-07,-2.0512000276085018e-07,-1.9607912804531225e-07,-1.8703826754062902e-07,-1.779974070359458e-07,-1.6895654653126257e-07,-1.5991568602657935e-07,-1.508748113110414e-07,-1.418339508063582e-07,-1.3279309030167497e-07,-1.2375221558613703e-07,-1.147113550814538e-07,-1.0567049457677058e-07,-9.662963407208736e-08,-8.758876646197677e-08,-7.85478988518662e-08,-6.950703834718297e-08,-6.046617784249975e-08,-5.1425310232389165e-08,-4.238444617499226e-08,-3.334358211759536e-08,-2.4302718060198458e-08,-1.5261854002801556e-08,-6.2209899454046536e-09,2.819874111992249e-09,1.1860738169389151e-08,2.0901602226786054e-08,2.9942466284182956e-08,3.898333034157986e-08,4.802419439897676e-08,5.706505845637366e-08,6.610592606648424e-08,7.514678657116747e-08,8.418764707585069e-08,9.322851468596127e-08,1.0226938229607185e-07,1.1131024280075508e-07],"_type":"histogram","values":[2,0,0,0,0,0,0,0,0,0,0,0,0,0,0,0,0,0,0,0,0,0,0,0,0,0,0,0,0,0,0,0,2,0,0,0,2,0,0,0,4,0,0,0,0,0,0,2,2,2,4,34,0,0,0,2,0,0,0,2,0,0,0,2]},"Epoch":13,"gradients/decoder.gx.bias":{"_type":"histogram","values":[1],"bins":[0.07841696590185165,0.07841696590185165]},"gradients/encoder.g_zeta.weight":{"bins":[-0.003014144254848361,-0.0029071313329041004,-0.00280011841095984,-0.002693105721846223,-0.0025860927999019623,-0.0024790798779577017,-0.002372066956013441,-0.0022650540340691805,-0.00215804111212492,-0.002051028423011303,-0.0019440155010670424,-0.0018370025791227818,-0.0017299896571785212,-0.0016229768516495824,-0.0015159639297053218,-0.001408951124176383,-0.0013019382022321224,-0.0011949252802878618,-0.001087912474758923,-0.0009808995528146625,-0.0008738866890780628,-0.0007668738253414631,-0.0006598609033972025,-0.0005528480396606028,-0.0004458351759240031,-0.00033882231218740344,-0.0002318094193469733,-0.0001247965410584584,-1.7783662769943476e-05,8.922921551857144e-05,0.00019624209380708635,0.0003032549866475165,0.0004102676175534725,0.0005172804812900722,0.0006242933450266719,0.0007313062669709325,0.0008383191307075322,0.0009453319944441319,0.0010523449163883924,0.0011593577219173312,0.0012663706438615918,0.0013733835658058524,0.0014803963713347912,0.0015874092932790518,0.0016944222152233124,0.0018014350207522511,0.0019084479426965117,0.0020154607482254505,0.002122473670169711,0.0022294865921139717,0.0023364995140582323,0.0024435122031718493,0.00255052512511611,0.0026575380470603704,0.002764550969004631,0.0028715638909488916,0.0029785768128931522,0.003085589502006769,0.0031926024239510298,0.0032996153458952904,0.003406628267839551,0.0035136411897838116,0.0036206538788974285,0.003727666800841689,0.0038346797227859497],"_type":"histogram","values":[1,0,0,0,0,0,0,0,0,0,0,0,1,0,0,0,0,0,1,0,1,0,1,0,1,1,4,5,21,4,0,1,0,0,0,0,1,1,0,1,1,0,0,0,0,0,0,0,0,0,0,0,0,0,1,1,0,0,0,0,0,0,1,1]},"Average Loss Y":0.45785821087658407,"gradients/decoder.hybrid_ode.linear_zy.bias":{"bins":[-0.025444436818361282,-0.024673722684383392,-0.023903008550405502,-0.023132294416427612,-0.022361580282449722,-0.021590866148471832,-0.020820152014493942,-0.020049437880516052,-0.019278723746538162,-0.01850801147520542,-0.01773729734122753,-0.01696658320724964,-0.01619586907327175,-0.015425154939293861,-0.014654440805315971,-0.013883726671338081,-0.013113012537360191,-0.012342298403382301,-0.011571584269404411,-0.010800870135426521,-0.010030156001448631,-0.009259442798793316,-0.008488728664815426,-0.007718014530837536,-0.006947300396859646,-0.006176586262881756,-0.005405872128903866,-0.004635158460587263,-0.003864444326609373,-0.003093730192631483,-0.0023230162914842367,-0.0015523022739216685,-0.0007815882563591003,-1.0874238796532154e-05,0.000759839778766036,0.0015305537963286042,0.0023012678138911724,0.0030719819478690624,0.003842695849016309,0.004613409750163555,0.005384123884141445,0.006154838018119335,0.006925552152097225,0.007696265820413828,0.00846697948873043,0.00923769362270832,0.01000840775668621,0.0107791218906641,0.01154983602464199,0.01232055015861988,0.01309126429259777,0.01386197842657566,0.01463269256055355,0.015403405763208866,0.01617412082850933,0.01694483496248722,0.01771554723381996,0.01848626136779785,0.01925697550177574,0.02002768963575363,0.02079840376973152,0.02156911790370941,0.0223398320376873,0.02311054617166519,0.02388126030564308],"_type":"histogram","values":[1,0,0,0,0,0,0,0,0,1,0,0,0,0,0,0,0,0,0,0,0,0,0,0,0,0,0,0,0,0,0,0,0,0,0,0,0,0,0,0,0,1,0,0,0,0,0,1,0,0,0,0,0,0,0,0,0,0,0,0,0,0,0,1]},"gradients/decoder.hybrid_ode.seirm.mu":{"_type":"histogram","values":[1],"bins":[0.002265746472403407,0.002265746472403407]},"gradients/encoder.lstm.weight_hh_l0":{"bins":[-4.3616892071440816e-05,-4.272837395546958e-05,-4.1839852201519534e-05,-4.0951334085548297e-05,-4.006281596957706e-05,-3.9174294215627015e-05,-3.828577609965578e-05,-3.739725798368454e-05,-3.65087398677133e-05,-3.562021811376326e-05,-3.473169999779202e-05,-3.384318188182078e-05,-3.295466012787074e-05,-3.20661420118995e-05,-3.1177623895928264e-05,-3.0289103960967623e-05,-2.9400584026006982e-05,-2.851206409104634e-05,-2.7623545975075103e-05,-2.6735026040114462e-05,-2.5846507924143225e-05,-2.4957987989182584e-05,-2.4069468054221943e-05,-2.3180949938250706e-05,-2.2292430003290065e-05,-2.1403910068329424e-05,-2.0515391952358186e-05,-1.9626872017397545e-05,-1.8738352082436904e-05,-1.7849833966465667e-05,-1.6961314031505026e-05,-1.607279591553379e-05,-1.5184274161583744e-05,-1.4295755136117805e-05,-1.3407236110651866e-05,-1.2518716175691225e-05,-1.1630197150225285e-05,-1.0741678124759346e-05,-9.853158189798705e-06,-8.964639164332766e-06,-8.076120138866827e-06,-7.187601113400888e-06,-6.299081633187598e-06,-5.4105621529743075e-06,-4.522043127508368e-06,-3.6335238746687537e-06,-2.745004621829139e-06,-1.8564853689895244e-06,-9.679661161499098e-07,-7.944686331029516e-08,8.090723895293195e-07,1.6975916423689341e-06,2.5861108952085488e-06,3.4746301480481634e-06,4.363149400887778e-06,5.251668881101068e-06,6.140187906567007e-06,7.0287069320329465e-06,7.917225957498886e-06,8.805745892459527e-06,9.694264917925466e-06,1.0582783943391405e-05,1.1471303878352046e-05,1.2359822903817985e-05,1.3248341929283924e-05],"_type":"histogram","values":[1,0,0,0,0,0,0,0,0,0,0,0,0,0,0,0,0,0,0,0,0,0,0,1,0,0,0,0,0,0,0,0,0,1,1,0,1,0,0,0,0,0,0,0,3,2,3,5,19,46,6,1,2,2,0,1,2,0,0,0,0,1,0,2]},"_wandb":{"runtime":1384},"_step":1410,"gradients/decoder.hybrid_ode.seirm.gamma":{"_type":"histogram","values":[1],"bins":[0.01216303650289774,0.01216303650289774]},"Batch":97,"gradients/encoder.g_xi.weight":{"bins":[-0.0006679068901576102,-0.0006525481003336608,-0.0006371893105097115,-0.0006218305206857622,-0.0006064717308618128,-0.0005911129410378635,-0.0005757541512139142,-0.0005603953613899648,-0.0005450365715660155,-0.0005296777817420661,-0.0005143189919181168,-0.0004989602020941675,-0.0004836014413740486,-0.00046824265155009925,-0.0004528838617261499,-0.0004375250719022006,-0.00042216628207825124,-0.0004068074922543019,-0.00039144870243035257,-0.00037608991260640323,-0.0003607311227824539,-0.00034537233295850456,-0.0003300135431345552,-0.0003146547533106059,-0.000299295992590487,-0.00028393720276653767,-0.00026857841294258833,-0.000253219623118639,-0.00023786083329468966,-0.00022250204347074032,-0.00020714325364679098,-0.00019178446382284164,-0.00017642570310272276,-0.00016106691327877343,-0.0001457081234548241,-0.00013034933363087475,-0.00011499055108288303,-9.963176125893369e-05,-8.427297871094197e-05,-6.891418888699263e-05,-5.3555399063043296e-05,-3.819660923909396e-05,-2.283782305312343e-05,-7.479035048163496e-06,7.879752956796438e-06,2.323854096175637e-05,3.8597328966716304e-05,5.3956115152686834e-05,6.931490497663617e-05,8.467369480058551e-05,0.00010003248462453485,0.00011539126717252657,0.00013075006427243352,0.00014610883954446763,0.00016146762936841697,0.0001768264191923663,0.00019218520901631564,0.00020754399884026498,0.0002229027886642143,0.00023826157848816365,0.00025362035376019776,0.0002689791435841471,0.00028433793340809643,0.00029969672323204577,0.0003150555130559951],"_type":"histogram","values":[1,0,0,1,0,0,0,0,0,0,0,0,0,0,0,0,0,0,0,0,0,0,0,0,0,1,0,0,0,0,0,0,0,0,0,0,0,1,2,0,2,4,1,1,2,2,0,0,2,1,0,0,0,0,1,2,0,0,0,0,0,0,0,1]},"gradients/encoder.g_xi.bias":{"_type":"histogram","values":[1,0,0,1,0,0,0,0,0,0,0,0,0,0,0,0,0,0,0,0,0,0,0,0,0,1,0,0,0,0,0,0,0,0,0,0,0,0,0,0,0,0,0,0,0,0,0,0,0,0,0,0,0,0,0,1,0,0,0,0,0,0,0,1],"bins":[-0.0022849191445857286,-0.0022323764860630035,-0.0021798338275402784,-0.0021272911690175533,-0.0020747485104948282,-0.002022205851972103,-0.0019696634262800217,-0.0019171206513419747,-0.0018645781092345715,-0.0018120354507118464,-0.0017594927921891212,-0.0017069501336663961,-0.001654407475143671,-0.001601864816620946,-0.0015493222745135427,-0.0014967796159908175,-0.0014442369574680924,-0.0013916942989453673,-0.0013391516404226422,-0.001286609098315239,-0.0012340664397925138,-0.0011815237812697887,-0.0011289811227470636,-0.0010764384642243385,-0.0010238958057016134,-0.0009713532053865492,-0.000918810605071485,-0.0008662679465487599,-0.0008137252880260348,-0.0007611826877109706,-0.0007086400291882455,-0.0006560974288731813,-0.0006035548867657781,-0.000551012228243053,-0.0004984696279279888,-0.00044592696940526366,-0.000393384339986369,-0.00034084171056747437,-0.00028829905204474926,-0.0002357564226258546,-0.00018321379320695996,-0.00013067116378806531,-7.812851981725544e-05,-2.5585883122403175e-05,2.6956753572449088e-05,7.949939026730135e-05,0.00013204202696215361,0.0001845846709329635,0.00023712730035185814,0.0002896699297707528,0.00034221255918964744,0.00039475521771237254,0.0004472978471312672,0.0004998404765501618,0.0005523831350728869,0.0006049257353879511,0.0006574683939106762,0.0007100110524334013,0.0007625536527484655,0.0008150963112711906,0.0008676389697939157,0.0009201815701089799,0.000972724228631705,0.0010252668289467692,0.0010778094874694943]},"_runtime":1383.863202111,"_timestamp":1.7283963688381948e+09,"gradients/encoder.g_zeta.bias":{"_type":"histogram","values":[1,1,0,1,0,0,0,0,0,0,0,0,0,0,0,0,0,0,0,0,0,0,0,1,0,0,0,0,0,0,0,0,0,0,0,0,0,0,0,0,0,0,0,0,0,0,0,0,0,0,0,0,0,0,0,0,0,0,0,0,0,0,0,1],"bins":[-0.0005193458637222648,-0.0003593075380194932,-0.00019926921231672168,-3.923088661395013e-05,0.00012080743908882141,0.00028084576479159296,0.0004408840904943645,0.0006009223870933056,0.0007609607418999076,0.0009209990967065096,0.0010810373350977898,0.0012410756899043918,0.0014011140447109938,0.0015611523995175958,0.0017211907543241978,0.001881228992715478,0.002041267231106758,0.002201305702328682,0.002361343940719962,0.002521382411941886,0.002681420650333166,0.0028414588887244463,0.00300149735994637,0.0031615355983376503,0.003321574069559574,0.0034816123079508543,0.0036416505463421345,0.0038016890175640583,0.003961727023124695,0.004121765494346619,0.0042818039655685425,0.004441842436790466,0.00460188090801239,0.004761919379234314,0.0049219573847949505,0.005081995856016874,0.005242034327238798,0.005402072332799435,0.0055621108040213585,0.005722149275243282,0.005882187746465206,0.006042225752025843,0.0062022642232477665,0.00636230269446969,0.006522340700030327,0.006682379171252251,0.0068424176424741745,0.007002455648034811,0.007162494119256735,0.007322532590478659,0.007482570596039295,0.007642609067261219,0.007802647538483143,0.007962686009705067,0.00812272448092699,0.00828276202082634,0.008442800492048264,0.008602838963270187,0.008762877434492111,0.008922915905714035,0.009082954376935959,0.009242991916835308,0.009403030388057232,0.009563068859279156,0.00972310733050108]},"Batch Loss Y":0.10736572742462158,"gradients/decoder.hybrid_ode.seirm.beta":{"values":[1],"bins":[-0.009589883498847485,-0.009589883498847485],"_type":"histogram"},"gradients/encoder.g_eta.bias":{"values":[1,0,0,0,0,0,0,0,0,0,1,0,0,0,0,0,0,0,0,0,1,0,0,0,0,0,0,0,0,0,0,0,0,0,0,0,0,0,0,0,0,0,1,0,0,0,0,0,0,0,0,0,0,0,0,0,0,0,0,0,0,0,0,1],"bins":[-0.005652541760355234,-0.005445771384984255,-0.0052390010096132755,-0.005032230634242296,-0.00482545979321003,-0.00461868941783905,-0.004411919042468071,-0.004205148667097092,-0.003998378291726112,-0.0037916076835244894,-0.00358483730815351,-0.003378066932782531,-0.003171296324580908,-0.0029645259492099285,-0.002757755573838949,-0.0025509849656373262,-0.002344214590266347,-0.0021374442148953676,-0.0019306737231090665,-0.0017239032313227654,-0.001517132855951786,-0.001310362364165485,-0.0011035918723791838,-0.0008968214388005435,-0.0006900510052219033,-0.0004832805716432631,-0.0002765101089607924,-6.973966083023697e-05,0.00013703078730031848,0.0003438012208789587,0.0005505717126652598,0.0007573421462439001,0.0009641125798225403,0.0011708830716088414,0.0013776534469798207,0.0015844239387661219,0.0017911943141371012,0.001997964922338724,0.0022047352977097034,0.0024115056730806828,0.002618276048451662,0.002825046656653285,0.0030318170320242643,0.0032385874073952436,0.0034453580155968666,0.003652128390967846,0.0038588987663388252,0.0040656691417098045,0.004272439517080784,0.0044792103581130505,0.00468598073348403,0.004892751108855009,0.005099521484225988,0.005306291859596968,0.005513062234967947,0.005719833076000214,0.005926603451371193,0.006133373826742172,0.0063401442021131516,0.006546914577484131,0.00675368495285511,0.006960455793887377,0.007167226169258356,0.007373996544629335,0.007580766920000315],"_type":"histogram"},"gradients/encoder.lstm.bias_hh_l0":{"_type":"histogram","values":[1,0,0,0,0,0,0,0,0,0,0,0,0,0,0,0,0,0,0,0,0,0,0,0,0,0,0,1,0,0,0,0,0,0,0,0,1,1,1,0,0,0,0,0,0,0,2,0,1,3,6,0,0,0,0,0,0,0,1,1,0,0,0,1],"bins":[-0.0001879950286820531,-0.00018428656039759517,-0.00018057810666505247,-0.00017686963838059455,-0.00017316118464805186,-0.00016945271636359394,-0.00016574426263105124,-0.00016203579434659332,-0.00015832734061405063,-0.0001546188723295927,-0.00015091041859705,-0.0001472019503125921,-0.0001434934965800494,-0.00013978502829559147,-0.00013607657456304878,-0.00013236810627859086,-0.00012865965254604816,-0.00012495118426159024,-0.00012124272325308993,-0.00011753426224458963,-0.00011382580123608932,-0.00011011734022758901,-0.0001064088792190887,-0.0001027004182105884,-9.899195720208809e-05,-9.528349619358778e-05,-9.157503518508747e-05,-8.786657417658716e-05,-8.415811316808686e-05,-8.044965215958655e-05,-7.674119115108624e-05,-7.303273014258593e-05,-6.932427641004324e-05,-6.561580812558532e-05,-6.190734711708501e-05,-5.819888974656351e-05,-5.44904287380632e-05,-5.0781967729562894e-05,-4.7073506721062586e-05,-4.336504571256228e-05,-3.965658106608316e-05,-3.5948120057582855e-05,-3.223965904908255e-05,-2.8531199859571643e-05,-2.4822737032081932e-05,-2.1114276023581624e-05,-1.7405815015081316e-05,-1.3697354006581008e-05,-9.9888929980807e-06,-6.280431989580393e-06,-2.571970526332734e-06,1.136490709541249e-06,4.844951945415232e-06,8.55341295391554e-06,1.226187487191055e-05,1.5970335880410857e-05,1.9678796888911165e-05,2.3387257897411473e-05,2.709571890591178e-05,3.080418173340149e-05,3.45126427419018e-05,3.822110375040211e-05,4.1929564758902416e-05,4.5638025767402723e-05,4.934648677590303e-05]},"gradients/decoder.gy.bias":{"_type":"histogram","values":[1],"bins":[0.08141405880451202,0.08141405880451202]},"gradients/decoder.hybrid_ode.seirm.alpha":{"bins":[-0.011155035346746445,-0.011155035346746445],"_type":"histogram","values":[1]},"gradients/decoder.gy.weight":{"bins":[-1.0329469442367554,-1.0017578601837158,-0.9705687165260315,-0.9393795728683472,-0.9081904888153076,-0.8770013451576233,-0.8458122611045837,-0.8146231174468994,-0.7834340333938599,-0.7522448897361755,-0.7210557460784912,-0.6898666620254517,-0.6586775183677673,-0.6274884343147278,-0.5962992906570435,-0.5651102066040039,-0.5339210629463196,-0.5027319192886353,-0.4715428352355957,-0.44035372138023376,-0.4091646075248718,-0.3779754638671875,-0.34678635001182556,-0.3155972361564636,-0.2844081223011017,-0.25321900844573975,-0.2220298945903778,-0.19084076583385468,-0.15965165197849274,-0.1284625381231308,-0.09727341681718826,-0.06608429551124573,-0.034895122051239014,-0.0037060044705867767,0.02748311311006546,0.0586722306907177,0.08986134827136993,0.12105046212673187,0.152239590883255,0.18342870473861694,0.21461781859397888,0.24580693244934082,0.27699604630470276,0.3081851601600647,0.339374303817749,0.37056341767311096,0.4017525315284729,0.43294164538383484,0.4641307592391968,0.4953198730945587,0.5265089869499207,0.557698130607605,0.5888872146606445,0.6200763583183289,0.6512654423713684,0.6824545860290527,0.7136436700820923,0.7448328137397766,0.7760219573974609,0.8072110414505005,0.8384001851081848,0.8695892691612244,0.9007784128189087,0.9319674968719482,0.9631566405296326],"_type":"histogram","values":[1,0,0,0,0,2,0,0,0,0,0,0,0,0,0,0,0,1,0,0,0,0,0,0,0,0,0,0,0,0,1,1,0,2,0,1,0,1,1,0,0,0,0,0,0,0,1,0,0,0,1,1,0,0,0,0,0,0,0,0,0,1,0,1]},"gradients/decoder.hybrid_ode.linear_zx.bias":{"values":[1,0,0,0,0,0,0,0,0,0,0,0,0,0,0,0,0,0,1,0,0,0,0,0,0,0,0,1,0,0,0,0,0,0,0,0,0,0,0,0,0,0,0,0,1,0,0,0,0,0,0,0,0,0,0,0,0,0,0,0,0,0,0,1],"bins":[-0.013016439974308014,-0.012394353747367859,-0.011772267520427704,-0.011150181293487549,-0.010528095066547394,-0.009906008839607239,-0.009283922612667084,-0.008661836385726929,-0.008039750158786774,-0.007417663931846619,-0.006795577704906464,-0.006173491477966309,-0.0055514052510261536,-0.0049293190240859985,-0.0043072327971458435,-0.0036851465702056885,-0.0030630603432655334,-0.0024409741163253784,-0.0018188878893852234,-0.0011968016624450684,-0.0005747154355049133,4.73707914352417e-05,0.0006694570183753967,0.0012915432453155518,0.0019136294722557068,0.002535715699195862,0.003157801926136017,0.003779888153076172,0.004401974380016327,0.005024060606956482,0.005646146833896637,0.006268233060836792,0.006890317425131798,0.007512403652071953,0.008134489879012108,0.008756576105952263,0.009378662332892418,0.010000748559832573,0.010622834786772728,0.011244921013712883,0.011867007240653038,0.012489093467593193,0.013111179694533348,0.013733265921473503,0.014355352148413658,0.014977438375353813,0.015599524602293968,0.016221610829234123,0.016843697056174278,0.017465783283114433,0.01808786951005459,0.018709955736994743,0.0193320419639349,0.019954128190875053,0.02057621441781521,0.021198300644755363,0.02182038687169552,0.022442473098635674,0.02306455932557583,0.023686645552515984,0.02430873177945614,0.024930818006396294,0.02555290423333645,0.026174990460276604,0.02679707668721676],"_type":"histogram"},"gradients/decoder.gx.weight":{"bins":[-0.9598919749259949,-0.928046464920044,-0.896200954914093,-0.8643554449081421,-0.8325099945068359,-0.800664484500885,-0.7688189744949341,-0.7369734644889832,-0.7051279544830322,-0.6732824444770813,-0.6414369344711304,-0.6095914244651794,-0.5777459144592285,-0.5459004640579224,-0.5140549540519714,-0.4822094440460205,-0.4503639340400696,-0.41851842403411865,-0.3866729140281677,-0.3548274338245392,-0.32298192381858826,-0.29113641381263733,-0.2592909336090088,-0.22744542360305786,-0.19559991359710693,-0.163754403591156,-0.13190890848636627,-0.10006340593099594,-0.06821790337562561,-0.03637240082025528,-0.004526898264884949,0.027318604290485382,0.05916404724121094,0.09100954979658127,0.1228550523519516,0.15470054745674133,0.18654605746269226,0.2183915674686432,0.25023704767227173,0.28208255767822266,0.3139280676841736,0.3457735776901245,0.37761908769607544,0.409464567899704,0.4413100779056549,0.47315558791160583,0.5050010681152344,0.5368465781211853,0.5686920881271362,0.6005375981330872,0.6323831081390381,0.664228618144989,0.6960741281509399,0.7279195785522461,0.759765088558197,0.791610598564148,0.8234561085700989,0.8553016185760498,0.8871471285820007,0.9189926385879517,0.9508380889892578,0.9826835989952087,1.0145291090011597,1.0463746786117554,1.0782201290130615],"_type":"histogram","values":[1,0,0,0,0,0,0,0,0,0,0,0,0,0,1,0,0,0,0,0,0,0,0,0,0,0,0,1,0,0,1,0,0,0,0,0,0,0,0,0,0,0,0,0,0,0,0,0,0,1,0,0,0,0,0,0,0,0,0,0,0,0,0,1]},"gradients/decoder.hybrid_ode.linear_zy.weight":{"values":[2,0,0,0,1,1,1,1,0,0,1,0,0,1,0,3,0,1,0,1,1,3,1,1,1,1,2,1,4,3,8,6,8,3,2,4,1,1,1,1,2,0,1,1,0,2,0,1,1,1,0,0,0,0,0,1,0,0,1,1,1,0,0,1],"bins":[-0.16881325840950012,-0.163358673453331,-0.15790408849716187,-0.15244951844215393,-0.1469949334859848,-0.14154034852981567,-0.13608576357364655,-0.1306311935186386,-0.12517660856246948,-0.11972202360630035,-0.11426743865013123,-0.1088128611445427,-0.10335827618837357,-0.09790369868278503,-0.0924491137266159,-0.08699453622102737,-0.08153995126485825,-0.07608536630868912,-0.07063078880310059,-0.06517620384693146,-0.059721626341342926,-0.0542670413851738,-0.04881246015429497,-0.04335787892341614,-0.03790329769253731,-0.03244871646165848,-0.026994135230779648,-0.02153955213725567,-0.01608497090637684,-0.010630389675498009,-0.005175807513296604,0.0002787741832435131,0.00573335587978363,0.01118793711066246,0.01664251834154129,0.02209710143506527,0.0275516826659441,0.03300626575946808,0.03846084699034691,0.04391542822122574,0.04937000945210457,0.0548245906829834,0.06027917191386223,0.06573375314474106,0.07118833810091019,0.07664291560649872,0.08209750056266785,0.08755207806825638,0.0930066630244255,0.09846124798059464,0.10391582548618317,0.1093704104423523,0.11482498794794083,0.12027957290410995,0.1257341504096985,0.13118873536586761,0.13664332032203674,0.14209790527820587,0.1475524753332138,0.15300706028938293,0.15846164524555206,0.1639162302017212,0.16937080025672913,0.17482538521289825,0.18027997016906738],"_type":"histogram"}}