{"gradients/decoder.hybrid_ode.linear_zx.weight":{"values":[1,0,0,1,1,0,0,1,0,0,0,0,0,0,0,0,0,0,1,0,1,1,2,1,1,1,1,1,1,0,2,1,2,2,4,5,2,1,1,2,1,0,0,2,1,0,0,0,1,1,1,1,1,1,1,0,1,1,0,0,2,0,2,1],"bins":[-2.04140567779541,-1.983341097831726,-1.9252766370773315,-1.8672120571136475,-1.8091474771499634,-1.7510830163955688,-1.6930184364318848,-1.6349538564682007,-1.5768892765045166,-1.518824815750122,-1.460760235786438,-1.402695655822754,-1.3446311950683594,-1.2865666151046753,-1.2285020351409912,-1.1704375743865967,-1.1123729944229126,-1.0543084144592285,-0.9962438941001892,-0.9381793737411499,-0.8801147937774658,-0.8220502734184265,-0.7639857530593872,-0.7059211730957031,-0.6478566527366638,-0.5897921323776245,-0.5317275524139404,-0.4736630320549011,-0.41559848189353943,-0.35753393173217773,-0.2994694113731384,-0.24140486121177673,-0.1833401918411255,-0.1252756416797638,-0.0672111064195633,-0.009146563708782196,0.0489179790019989,0.10698252171278,0.1650470644235611,0.2231115996837616,0.2811761498451233,0.339240700006485,0.3973052501678467,0.455369770526886,0.5134342908859253,0.5714988708496094,0.6295633912086487,0.6876279711723328,0.7456924915313721,0.8037570118904114,0.8618215918540955,0.9198861122131348,0.9779506921768188,1.0360151529312134,1.0940797328948975,1.1521443128585815,1.2102088928222656,1.2682733535766602,1.3263379335403442,1.3844025135040283,1.4424669742584229,1.500531554222107,1.558596134185791,1.6166605949401855,1.6747251749038696],"_type":"histogram"},"gradients/encoder.lstm.weight_hh_l0":{"bins":[-0.0008669697563163936,-0.0008297530584968626,-0.0007925363606773317,-0.0007553196628578007,-0.0007181029650382698,-0.0006808862672187388,-0.0006436695693992078,-0.0006064528715796769,-0.0005692361737601459,-0.0005320194759406149,-0.000494802778121084,-0.000457586080301553,-0.00042036938248202205,-0.0003831526846624911,-0.0003459359868429601,-0.00030871928902342916,-0.0002715025912038982,-0.00023428589338436723,-0.00019706919556483626,-0.0001598524977453053,-0.00012263579992577434,-8.541910210624337e-05,-4.820240428671241e-05,-1.0985706467181444e-05,2.623099135234952e-05,6.344768917188048e-05,0.00010066438699141145,0.0001378810848109424,0.00017509778263047338,0.00021231448045000434,0.0002495311782695353,0.00028674787608906627,0.0003239645157009363,0.0003611812135204673,0.00039839791133999825,0.0004356146091595292,0.0004728313069790602,0.0005100480047985911,0.0005472647026181221,0.0005844814004376531,0.000621698098257184,0.000658914796076715,0.000696131493896246,0.0007333481917157769,0.0007705648895353079,0.0008077815873548388,0.0008449982851743698,0.0008822149829939008,0.0009194316808134317,0.0009566483786329627,0.0009938650764524937,0.0010310817742720246,0.0010682984720915556,0.0011055151699110866,0.0011427318677306175,0.0011799485655501485,0.0012171652633696795,0.0012543819611892104,0.0012915986590087414,0.0013288153568282723,0.0013660320546478033,0.0014032487524673343,0.0014404654502868652,0.0014776821481063962,0.0015148988459259272],"_type":"histogram","values":[1,0,0,0,0,1,0,0,2,0,0,0,1,0,1,0,0,0,2,0,0,6,17,47,0,4,4,0,4,0,4,1,0,0,0,3,0,0,0,0,0,0,0,0,0,0,0,0,0,1,0,0,0,0,0,0,0,0,0,0,0,0,0,1]},"gradients/decoder.hybrid_ode.linear_zy.weight":{"bins":[-5.007399082183838,-4.876791000366211,-4.746182918548584,-4.615575313568115,-4.484967231750488,-4.354359149932861,-4.223751068115234,-4.093143463134766,-3.9625353813171387,-3.8319272994995117,-3.7013192176818848,-3.570711374282837,-3.44010329246521,-3.309495449066162,-3.178887367248535,-3.0482795238494873,-2.9176714420318604,-2.7870633602142334,-2.6564555168151855,-2.5258474349975586,-2.3952395915985107,-2.264631509780884,-2.134023666381836,-2.003415584564209,-1.8728076219558716,-1.7421996593475342,-1.6115916967391968,-1.4809837341308594,-1.3503756523132324,-1.219767689704895,-1.0891597270965576,-0.9585517644882202,-0.8279435634613037,-0.6973356008529663,-0.5667276382446289,-0.43611961603164673,-0.3055116534233093,-0.17490367591381073,-0.044295698404312134,0.08631227910518646,0.21692025661468506,0.34752821922302246,0.47813621163368225,0.608744204044342,0.7393521666526794,0.8699601292610168,1.000568151473999,1.1311761140823364,1.2617840766906738,1.3923920392990112,1.5230000019073486,1.653607964515686,1.7842159271240234,1.9148240089416504,2.0454318523406982,2.176039934158325,2.306647777557373,2.437255859375,2.567863941192627,2.698471784591675,2.8290798664093018,2.9596877098083496,3.0902957916259766,3.2209036350250244,3.3515117168426514],"_type":"histogram","values":[1,0,0,0,0,0,0,0,0,1,0,0,2,0,0,0,1,0,0,2,1,0,1,0,1,0,1,3,2,0,2,2,3,3,1,3,3,7,18,2,1,1,3,1,2,1,0,1,1,2,1,1,0,0,0,1,1,1,0,0,0,0,1,1]},"gradients/decoder.gx.weight":{"_type":"histogram","values":[1,0,0,0,0,0,0,0,1,0,0,0,0,0,0,0,0,0,0,0,1,0,0,0,0,0,0,0,0,1,0,0,0,0,0,0,1,0,0,0,0,0,0,0,0,0,0,0,0,0,0,0,0,0,0,0,0,0,0,0,0,0,0,1],"bins":[-6.473013877868652,-6.294809818267822,-6.116605758666992,-5.938401699066162,-5.760197639465332,-5.581993579864502,-5.403789520263672,-5.225585460662842,-5.047381401062012,-4.869177341461182,-4.690973281860352,-4.5127692222595215,-4.334565162658691,-4.156361103057861,-3.978156805038452,-3.799952745437622,-3.621748685836792,-3.443544626235962,-3.265340566635132,-3.0871365070343018,-2.9089324474334717,-2.7307283878326416,-2.5525243282318115,-2.3743202686309814,-2.1961159706115723,-2.017911911010742,-1.8397079706192017,-1.6615039110183716,-1.483299732208252,-1.3050956726074219,-1.1268916130065918,-0.9486875534057617,-0.7704834938049316,-0.5922794342041016,-0.4140753448009491,-0.23587127029895782,-0.05766719579696655,0.12053687870502472,0.298740953207016,0.47694504261016846,0.6551491022109985,0.8333531618118286,1.0115572214126587,1.1897612810134888,1.3679654598236084,1.5461695194244385,1.7243735790252686,1.9025776386260986,2.0807816982269287,2.258985757827759,2.437189817428589,2.615393877029419,2.793597936630249,2.971801996231079,3.150006055831909,3.3282101154327393,3.5064144134521484,3.6846184730529785,3.8628225326538086,4.041026592254639,4.219230651855469,4.397434711456299,4.575638771057129,4.753842830657959,4.932046890258789]},"gradients/decoder.gx.bias":{"_type":"histogram","values":[1],"bins":[0.16848549246788025,0.16848549246788025]},"gradients/decoder.hybrid_ode.seirm.alpha":{"bins":[-0.09834940731525421,-0.09834940731525421],"_type":"histogram","values":[1]},"_wandb":{"runtime":9804},"gradients/decoder.gy.bias":{"_type":"histogram","values":[1],"bins":[0.15085092186927795,0.15085092186927795]},"_runtime":9803.440964665,"gradients/decoder.hybrid_ode.seirm.beta":{"values":[1],"bins":[0.48720061779022217,0.48720061779022217],"_type":"histogram"},"gradients/encoder.g_eta.weight":{"bins":[-0.09010788053274155,-0.08668167144060135,-0.08325546234846115,-0.07982925325632095,-0.07640303671360016,-0.07297682762145996,-0.06955061852931976,-0.06612440943717957,-0.06269820034503937,-0.05927199125289917,-0.05584578216075897,-0.052419569343328476,-0.04899336025118828,-0.04556715115904808,-0.042140938341617584,-0.038714729249477386,-0.03528852015733719,-0.03186231106519699,-0.028436100110411644,-0.025009889155626297,-0.0215836800634861,-0.0181574709713459,-0.014731260016560555,-0.011305049993097782,-0.00787883996963501,-0.004452629946172237,-0.001026419922709465,0.0023997901007533073,0.00582600012421608,0.009252210147678852,0.012678420171141624,0.01610463112592697,0.019530832767486572,0.02295704185962677,0.026383252814412117,0.029809463769197464,0.03323567286133766,0.03666188195347786,0.040088094770908356,0.04351430386304855,0.04694051295518875,0.05036672204732895,0.05379293113946915,0.05721914395689964,0.06064535304903984,0.06407156586647034,0.06749777495861053,0.07092398405075073,0.07435019314289093,0.07777640223503113,0.08120261132717133,0.08462882041931152,0.08805502951145172,0.09148124605417252,0.09490745514631271,0.09833366423845291,0.10175987333059311,0.1051860824227333,0.1086122915148735,0.1120385006070137,0.1154647171497345,0.1188909262418747,0.12231713533401489,0.1257433444261551,0.1291695535182953],"_type":"histogram","values":[1,0,0,0,0,0,0,0,0,0,1,0,0,0,0,0,0,1,0,0,0,4,0,1,1,0,7,4,1,2,0,0,0,0,0,0,0,0,0,0,0,0,0,0,0,0,0,0,1,0,0,0,0,0,0,0,0,0,0,0,0,0,0,1]},"gradients/decoder.hybrid_ode.seirm.mu":{"_type":"histogram","values":[1],"bins":[-0.2742479741573334,-0.2742479741573334]},"gradients/decoder.hybrid_ode.seirm.gamma":{"_type":"histogram","values":[1],"bins":[-0.13005606830120087,-0.13005606830120087]},"gradients/encoder.lstm.bias_ih_l0":{"values":[1,0,0,0,0,0,0,0,0,0,0,0,0,0,0,0,0,0,0,0,0,0,0,0,0,0,0,1,0,0,2,0,0,0,2,0,0,2,0,0,0,6,3,0,0,0,0,0,0,0,0,0,0,0,1,0,1,0,0,0,0,0,0,1],"bins":[-0.007849856279790401,-0.007661291863769293,-0.007472727447748184,-0.007284163497388363,-0.007095599081367254,-0.006907034665346146,-0.006718470249325037,-0.006529905833303928,-0.006341341882944107,-0.006152777466922998,-0.00596421305090189,-0.005775648634880781,-0.0055870842188596725,-0.005398519802838564,-0.005209955852478743,-0.005021391436457634,-0.004832827020436525,-0.004644262604415417,-0.004455698188394308,-0.004267134238034487,-0.004078569822013378,-0.0038900054059922695,-0.003701440989971161,-0.003512876806780696,-0.0033243123907595873,-0.0031357479747384787,-0.0029471837915480137,-0.002758619375526905,-0.0025700549595057964,-0.0023814907763153315,-0.002192926360294223,-0.002004362177103758,-0.0018157982267439365,-0.0016272339271381497,-0.001438669627532363,-0.0012501052115112543,-0.0010615409119054675,-0.0008729766122996807,-0.000684412254486233,-0.0004958478966727853,-0.0003072835970669985,-0.00011871926835738122,6.984506035223603e-05,0.0002584093890618533,0.00044697371777147055,0.0006355380173772573,0.0008241023751907051,0.0010126667330041528,0.0012012310326099396,0.0013897953322157264,0.0015783596318215132,0.0017669240478426218,0.0019554882310330868,0.0021440526470541954,0.002332617063075304,0.002521181246265769,0.0027097456622868776,0.0028983100783079863,0.0030868742614984512,0.00327543867751956,0.0034640030935406685,0.0036525672767311335,0.003841131692752242,0.004029695875942707,0.004218260291963816],"_type":"histogram"},"gradients/encoder.g_xi.bias":{"bins":[-0.25438639521598816,-0.2476651966571808,-0.2409440129995346,-0.23422281444072723,-0.22750163078308105,-0.22078043222427368,-0.2140592336654663,-0.20733805000782013,-0.20061685144901276,-0.19389565289020538,-0.1871744692325592,-0.18045327067375183,-0.17373207211494446,-0.16701088845729828,-0.1602896898984909,-0.15356850624084473,-0.14684730768203735,-0.14012610912322998,-0.1334049254655838,-0.12668372690677643,-0.11996253579854965,-0.11324134469032288,-0.1065201461315155,-0.09979895502328873,-0.09307776391506195,-0.08635657280683517,-0.0796353816986084,-0.07291418313980103,-0.06619299203157425,-0.05947180092334747,-0.0527506060898304,-0.046029411256313324,-0.039308205246925354,-0.03258701413869858,-0.025865819305181503,-0.019144626334309578,-0.012423433363437653,-0.005702240392565727,0.0010189525783061981,0.0077401455491781235,0.014461338520050049,0.021182531490921974,0.0279037244617939,0.034624919295310974,0.04134611040353775,0.048067301511764526,0.0547884963452816,0.061509691178798676,0.06823088228702545,0.07495207339525223,0.081673264503479,0.08839446306228638,0.09511565417051315,0.10183684527873993,0.1085580438375473,0.11527923494577408,0.12200042605400085,0.12872162461280823,0.1354428082704544,0.14216400682926178,0.14888519048690796,0.15560638904571533,0.1623275876045227,0.16904877126216888,0.17576996982097626],"_type":"histogram","values":[1,0,0,0,0,0,0,0,0,1,0,0,0,0,0,0,0,0,0,0,0,0,0,0,0,0,0,0,0,0,0,0,0,0,0,0,0,1,0,0,0,0,0,0,0,0,1,0,0,0,0,0,0,0,0,0,0,0,0,0,0,0,0,1]},"Epoch":99,"gradients/encoder.g_zeta.weight":{"_type":"histogram","values":[1,1,0,0,0,0,0,0,0,0,0,0,0,0,0,0,0,0,0,2,0,0,0,0,1,2,0,0,0,0,0,2,1,1,0,2,5,8,7,5,0,1,2,1,0,0,2,1,0,1,0,1,0,1,0,0,0,0,0,1,0,0,0,1],"bins":[-0.24082864820957184,-0.23455369472503662,-0.2282787412405014,-0.2220037877559662,-0.21572883427143097,-0.20945388078689575,-0.20317892730236053,-0.19690397381782532,-0.1906290203332901,-0.18435406684875488,-0.17807911336421967,-0.17180415987968445,-0.16552920639514923,-0.159254252910614,-0.1529792994260788,-0.14670434594154358,-0.14042937755584717,-0.13415442407131195,-0.12787947058677673,-0.12160452455282211,-0.1153295710682869,-0.10905461758375168,-0.10277966409921646,-0.09650471061468124,-0.09022974967956543,-0.08395479619503021,-0.077679842710495,-0.07140488922595978,-0.06512993574142456,-0.05885498225688934,-0.052580028772354126,-0.04630507528781891,-0.04003012180328369,-0.033755168318748474,-0.027480214834213257,-0.02120525948703289,-0.014930306002497673,-0.008655352517962456,-0.002380398102104664,0.0038945558480918407,0.010169509798288345,0.016444463282823563,0.02271941676735878,0.028994372114539146,0.03526932746171951,0.04154428094625473,0.04781923443078995,0.054094187915325165,0.06036914139986038,0.0666440948843956,0.07291904836893082,0.07919400185346603,0.08546895533800125,0.09174390882253647,0.09801886230707169,0.1042938157916069,0.11056877672672272,0.11684373021125793,0.12311868369579315,0.12939363718032837,0.1356685906648636,0.1419435441493988,0.14821849763393402,0.15449345111846924,0.16076840460300446]},"gradients/encoder.g_zeta.bias":{"_type":"histogram","values":[1,0,0,0,0,0,0,0,0,0,0,0,0,0,0,0,0,0,0,0,0,0,0,0,0,0,0,0,0,0,0,0,0,1,0,0,0,0,0,0,0,0,1,0,0,0,0,0,0,0,0,0,0,0,1,0,0,0,0,0,0,0,0,1],"bins":[-0.6633739471435547,-0.6534323692321777,-0.6434908509254456,-0.6335492730140686,-0.6236077547073364,-0.6136661767959595,-0.6037246584892273,-0.5937830805778503,-0.5838415622711182,-0.5738999843597412,-0.563958466053009,-0.5540168881416321,-0.5440753102302551,-0.534133791923523,-0.524192214012146,-0.5142506957054138,-0.5043091177940369,-0.4943675696849823,-0.48442602157592773,-0.47448447346687317,-0.4645429253578186,-0.45460137724876404,-0.4446598291397095,-0.4347182810306549,-0.42477673292160034,-0.4148351848125458,-0.4048936367034912,-0.39495205879211426,-0.3850105106830597,-0.3750689625740051,-0.36512741446495056,-0.355185866355896,-0.34524431824684143,-0.33530277013778687,-0.3253612220287323,-0.31541967391967773,-0.30547812581062317,-0.2955365777015686,-0.28559502959251404,-0.2756534814834595,-0.2657119035720825,-0.25577035546302795,-0.2458288073539734,-0.23588725924491882,-0.22594571113586426,-0.2160041630268097,-0.20606261491775513,-0.19612106680870056,-0.1861795037984848,-0.17623795568943024,-0.16629640758037567,-0.1563548594713211,-0.14641331136226654,-0.13647174835205078,-0.12653020024299622,-0.11658865213394165,-0.10664710402488708,-0.09670554846525192,-0.08676400035619736,-0.07682245224714279,-0.06688089668750763,-0.056939348578453064,-0.0469977967441082,-0.037056244909763336,-0.02711469493806362]},"gradients/decoder.gy.weight":{"_type":"histogram","values":[3,0,0,0,0,0,1,0,0,0,1,1,0,0,0,0,0,0,1,0,0,0,0,0,1,0,0,0,0,0,0,1,1,1,0,1,0,0,0,0,1,0,0,0,0,0,0,0,0,0,1,0,0,0,0,1,0,0,0,0,0,0,0,1],"bins":[-5.970332622528076,-5.781412601470947,-5.592493057250977,-5.403573036193848,-5.214653491973877,-5.025733470916748,-4.836813449859619,-4.647893905639648,-4.4589738845825195,-4.270054340362549,-4.08113431930542,-3.89221453666687,-3.7032947540283203,-3.5143749713897705,-3.3254549503326416,-3.136535167694092,-2.947615385055542,-2.758695602416992,-2.5697758197784424,-2.3808557987213135,-2.1919360160827637,-2.003016233444214,-1.814096450805664,-1.6251765489578247,-1.436256766319275,-1.247336983680725,-1.0584170818328857,-0.8694972991943359,-0.6805774569511414,-0.4916576147079468,-0.3027378022670746,-0.1138179749250412,0.07510185241699219,0.26402169466018677,0.45294150710105896,0.6418613195419312,0.8307811617851257,1.0197010040283203,1.2086207866668701,1.3975406885147095,1.5864604711532593,1.775380253791809,1.9643001556396484,2.1532199382781982,2.342139720916748,2.531059503555298,2.7199795246124268,2.9088993072509766,3.0978190898895264,3.286738872528076,3.475658655166626,3.664578676223755,3.8534984588623047,4.042418003082275,4.231338024139404,4.420258045196533,4.609177589416504,4.798097610473633,4.9870171546936035,5.175937175750732,5.364857196807861,5.553776741027832,5.742696762084961,5.931616306304932,6.1205363273620605]},"gradients/encoder.g_xi.weight":{"_type":"histogram","values":[1,0,0,0,0,0,0,0,0,0,1,0,0,0,0,0,0,1,0,0,1,2,2,0,2,0,6,3,0,2,0,0,0,0,0,0,0,0,0,0,0,0,1,0,0,0,0,0,1,0,0,0,0,0,1,0,0,0,0,0,0,0,0,1],"bins":[-0.042597781866788864,-0.04096890240907669,-0.039340026676654816,-0.03771114721894264,-0.03608226776123047,-0.034453388303518295,-0.03282450884580612,-0.031195633113384247,-0.029566753655672073,-0.0279378741979599,-0.026308996602892876,-0.02468011900782585,-0.023051239550113678,-0.021422360092401505,-0.01979348249733448,-0.018164604902267456,-0.016535725444555283,-0.014906846918165684,-0.013277968391776085,-0.011649089865386486,-0.010020211338996887,-0.008391332812607288,-0.0067624542862176895,-0.005133575759828091,-0.003504697233438492,-0.001875818707048893,-0.00024694018065929413,0.0013819383457303047,0.0030108168721199036,0.004639695398509502,0.006268573924899101,0.0078974524512887,0.009526327252388,0.0111552057787776,0.012784084305167198,0.014412962831556797,0.016041841357946396,0.01767072081565857,0.019299598410725594,0.020928476005792618,0.02255735546350479,0.024186234921216965,0.02581511251628399,0.027443990111351013,0.029072869569063187,0.03070174902677536,0.032330624759197235,0.03395950421690941,0.03558838367462158,0.037217263132333755,0.03884614259004593,0.040475018322467804,0.04210389778017998,0.04373277723789215,0.045361652970314026,0.0469905324280262,0.04861941188573837,0.050248291343450546,0.05187717080116272,0.053506046533584595,0.05513492599129677,0.05676380544900894,0.05839268118143082,0.06002156063914299,0.061650440096855164]},"gradients/encoder.lstm.weight_ih_l0":{"values":[2,0,0,0,0,0,0,0,0,0,0,0,0,0,0,0,0,0,0,0,0,0,0,0,0,2,0,0,0,0,0,2,0,0,2,0,2,2,3,1,0,0,34,4,0,0,0,0,0,0,0,0,0,0,2,2,0,0,0,0,0,0,0,2],"bins":[-1.967524985957425e-05,-1.9214257918065414e-05,-1.875326779554598e-05,-1.8292275854037143e-05,-1.783128573151771e-05,-1.7370293790008873e-05,-1.690930366748944e-05,-1.6448311725980602e-05,-1.598732160346117e-05,-1.552632966195233e-05,-1.5065338629938196e-05,-1.4604347597924061e-05,-1.4143356565909926e-05,-1.368236553389579e-05,-1.3221374501881655e-05,-1.276038346986752e-05,-1.2299392437853385e-05,-1.183840140583925e-05,-1.1377410373825114e-05,-1.0916419341810979e-05,-1.0455428309796844e-05,-9.994437277782708e-06,-9.533446245768573e-06,-9.072455213754438e-06,-8.6114632722456e-06,-8.150472240231466e-06,-7.68948120821733e-06,-7.228490630950546e-06,-6.76749914418906e-06,-6.3065081121749245e-06,-5.845517080160789e-06,-5.384526048146654e-06,-4.923535016132519e-06,-4.462543984118383e-06,-4.001552952104248e-06,-3.5405616927164374e-06,-3.079570660702302e-06,-2.618579628688167e-06,-2.157588369300356e-06,-1.6965973372862209e-06,-1.2356063052720856e-06,-7.746152164145315e-07,-3.1362412755697733e-07,1.473669613005768e-07,6.083580501581309e-07,1.0693490821722662e-06,1.5303402278732392e-06,1.991331373574212e-06,2.4523224055883475e-06,2.9133134376024827e-06,3.374304469616618e-06,3.835295501630753e-06,4.2962865336448886e-06,4.757278020406375e-06,5.21826905242051e-06,5.679260084434645e-06,6.1402511164487805e-06,6.601242148462916e-06,7.062233180477051e-06,7.523224212491186e-06,7.984215699252672e-06,8.445206731266808e-06,8.906197763280943e-06,9.367188795295078e-06,9.828179827309214e-06],"_type":"histogram"},"gradients/encoder.lstm.bias_hh_l0":{"bins":[-0.007849856279790401,-0.007661291863769293,-0.007472727447748184,-0.007284163497388363,-0.007095599081367254,-0.006907034665346146,-0.006718470249325037,-0.006529905833303928,-0.006341341882944107,-0.006152777466922998,-0.00596421305090189,-0.005775648634880781,-0.0055870842188596725,-0.005398519802838564,-0.005209955852478743,-0.005021391436457634,-0.004832827020436525,-0.004644262604415417,-0.004455698188394308,-0.004267134238034487,-0.004078569822013378,-0.0038900054059922695,-0.003701440989971161,-0.003512876806780696,-0.0033243123907595873,-0.0031357479747384787,-0.0029471837915480137,-0.002758619375526905,-0.0025700549595057964,-0.0023814907763153315,-0.002192926360294223,-0.002004362177103758,-0.0018157982267439365,-0.0016272339271381497,-0.001438669627532363,-0.0012501052115112543,-0.0010615409119054675,-0.0008729766122996807,-0.000684412254486233,-0.0004958478966727853,-0.0003072835970669985,-0.00011871926835738122,6.984506035223603e-05,0.0002584093890618533,0.00044697371777147055,0.0006355380173772573,0.0008241023751907051,0.0010126667330041528,0.0012012310326099396,0.0013897953322157264,0.0015783596318215132,0.0017669240478426218,0.0019554882310330868,0.0021440526470541954,0.002332617063075304,0.002521181246265769,0.0027097456622868776,0.0028983100783079863,0.0030868742614984512,0.00327543867751956,0.0034640030935406685,0.0036525672767311335,0.003841131692752242,0.004029695875942707,0.004218260291963816],"_type":"histogram","values":[1,0,0,0,0,0,0,0,0,0,0,0,0,0,0,0,0,0,0,0,0,0,0,0,0,0,0,1,0,0,2,0,0,0,2,0,0,2,0,0,0,6,3,0,0,0,0,0,0,0,0,0,0,0,1,0,1,0,0,0,0,0,0,1]},"Batch":99,"_step":10099,"Batch Loss Y":0.14629562199115753,"_timestamp":1.7284062073421426e+09,"gradients/decoder.hybrid_ode.linear_zx.bias":{"_type":"histogram","values":[1,0,0,0,0,0,0,0,0,0,0,0,0,0,0,0,0,0,0,0,0,0,1,0,0,0,0,0,0,0,1,0,1,0,0,0,0,0,0,0,0,0,0,0,0,0,0,0,0,0,0,0,0,0,0,0,0,0,0,0,0,0,0,1],"bins":[-0.8301572203636169,-0.8112260699272156,-0.7922949194908142,-0.7733638286590576,-0.7544326782226562,-0.7355015277862549,-0.7165703773498535,-0.6976392269134521,-0.6787080764770508,-0.6597769856452942,-0.6408458352088928,-0.6219146847724915,-0.6029835343360901,-0.5840523838996887,-0.5651212930679321,-0.5461901426315308,-0.5272589921951294,-0.508327841758728,-0.48939672112464905,-0.4704655706882477,-0.4515344500541687,-0.43260329961776733,-0.41367214918136597,-0.394741028547287,-0.3758098781108856,-0.35687872767448425,-0.3379476070404053,-0.3190164566040039,-0.30008530616760254,-0.28115418553352356,-0.2622230350971222,-0.24329189956188202,-0.22436079382896423,-0.20542965829372406,-0.1864985227584839,-0.16756737232208252,-0.14863623678684235,-0.12970510125160217,-0.1107739582657814,-0.09184281527996063,-0.07291167974472046,-0.05398054048418999,-0.035049401223659515,-0.016118261963129044,0.0028128772974014282,0.0217440165579319,0.04067515581846237,0.059606295078992844,0.07853743433952332,0.09746856987476349,0.11639971286058426,0.13533085584640503,0.1542619913816452,0.17319312691688538,0.19212427735328674,0.21105541288852692,0.2299865484237671,0.24891768395900726,0.26784881949424744,0.2867799699306488,0.3057110905647278,0.32464224100112915,0.3435733914375305,0.3625045120716095,0.38143566250801086]},"Average Loss Y":0.35265447132289407,"gradients/decoder.hybrid_ode.linear_zy.bias":{"bins":[-2.0367705821990967,-2.005333423614502,-1.9738962650299072,-1.9424591064453125,-1.9110219478607178,-1.879584789276123,-1.8481476306915283,-1.8167104721069336,-1.7852733135223389,-1.7538361549377441,-1.7223989963531494,-1.6909618377685547,-1.65952467918396,-1.6280875205993652,-1.5966503620147705,-1.5652132034301758,-1.533776044845581,-1.5023390054702759,-1.4709018468856812,-1.4394646883010864,-1.4080275297164917,-1.376590371131897,-1.3451532125473022,-1.3137160539627075,-1.2822788953781128,-1.250841736793518,-1.2194045782089233,-1.1879674196243286,-1.1565302610397339,-1.1250931024551392,-1.0936559438705444,-1.0622187852859497,-1.0307817459106445,-0.9993445873260498,-0.9679074287414551,-0.9364702701568604,-0.9050331115722656,-0.8735959529876709,-0.8421587944030762,-0.8107216358184814,-0.7792844772338867,-0.747847318649292,-0.716410219669342,-0.6849730610847473,-0.6535359025001526,-0.6220987439155579,-0.5906615853309631,-0.5592244267463684,-0.5277872681617737,-0.49635010957717896,-0.46491295099258423,-0.4334757924079895,-0.4020386338233948,-0.37060147523880005,-0.3391643464565277,-0.307727187871933,-0.27629002928733826,-0.24485287070274353,-0.2134157121181488,-0.18197855353355408,-0.15054140985012054,-0.11910425126552582,-0.08766709268093109,-0.05622994154691696,-0.024792784824967384],"_type":"histogram","values":[1,0,0,0,0,0,0,0,0,0,0,0,0,0,0,0,0,0,0,0,0,0,0,0,0,0,0,0,0,0,0,1,0,1,0,0,0,0,0,0,0,0,0,0,0,0,0,0,0,0,0,1,0,0,0,0,0,0,0,0,0,0,0,1]},"gradients/encoder.g_eta.bias":{"bins":[-0.5329885482788086,-0.518851101398468,-0.5047135949134827,-0.4905761480331421,-0.4764386713504791,-0.46230119466781616,-0.4481637477874756,-0.4340262711048126,-0.41988879442214966,-0.4057513177394867,-0.39161384105682373,-0.37747639417648315,-0.3633389174938202,-0.3492014408111572,-0.33506399393081665,-0.3209265172481537,-0.3067890405654907,-0.29265156388282776,-0.2785140872001648,-0.2643766403198242,-0.25023916363716125,-0.2361016869544983,-0.22196422517299652,-0.20782676339149475,-0.1936892867088318,-0.17955181002616882,-0.16541434824466705,-0.15127688646316528,-0.13713940978050232,-0.12300194054841995,-0.10886447131633759,-0.09472700208425522,-0.08058953285217285,-0.06645206362009048,-0.05231459438800812,-0.03817712515592575,-0.024039655923843384,-0.009902186691761017,0.00423528254032135,0.018372751772403717,0.032510221004486084,0.04664769023656845,0.06078515946865082,0.07492262870073318,0.08906009793281555,0.10319756716489792,0.11733503639698029,0.13147249817848206,0.14560997486114502,0.15974745154380798,0.17388491332530975,0.18802237510681152,0.2021598517894745,0.21629732847213745,0.23043479025363922,0.244572252035141,0.25870972871780396,0.2728472054004669,0.2869846820831299,0.30112212896347046,0.3152596056461334,0.3293970823287964,0.34353452920913696,0.3576720058917999,0.3718094825744629],"_type":"histogram","values":[1,0,0,0,0,0,0,0,0,0,0,0,0,0,0,0,0,0,0,0,0,0,0,0,0,0,0,0,0,0,0,0,0,0,0,1,0,0,0,0,0,0,1,0,0,0,1,0,0,0,0,0,0,0,0,0,0,0,0,0,0,0,0,1]}}